Language model created by QuickLM on Thu Jun  1 04:42:10 EDT 2017
Copyright (c) 1996-2010 Carnegie Mellon University and Alexander I. Rudnicky

The model is in standard ARPA format, designed by Doug Paul while he was at MITRE.

The code that was used to produce this language model is available in Open Source.
Please visit http://www.speech.cs.cmu.edu/tools/ for more information

The (fixed) discount mass is 0.5. The backoffs are computed using the ratio method.
This model based on a corpus of 45 sentences and 71 words

\data\
ngram 1=71
ngram 2=132
ngram 3=128

\1-grams:
-1.0352 </s> -0.3010
-1.0352 <s> -0.2410
-2.6884 ABOUT -0.3001
-2.6884 ANNYONG -0.2590
-2.6884 ANNYONGHASEYO -0.2590
-2.2113 ARE -0.2902
-2.6884 BE -0.2992
-2.3874 BEEN -0.2984
-2.6884 BUSAN -0.2590
-2.3874 BYE -0.2551
-2.3874 DATE -0.2570
-2.3874 DAY -0.2911
-2.3874 DISK -0.2939
-1.8433 DO -0.2893
-2.6884 EMAIL -0.2590
-2.6884 FACE -0.2590
-2.6884 FACEBOOK -0.2590
-2.3874 FREE -0.2975
-2.6884 GOING -0.2992
-2.6884 GOODBYE -0.2590
-1.9894 HAVE -0.2471
-2.3874 HELLO -0.2551
-2.3874 HI -0.2551
-1.8433 HOW -0.2948
-2.6884 IN -0.3001
-1.6470 IS -0.2902
-2.0864 IT -0.2561
-2.6884 KIM -0.2590
-2.6884 KNOW -0.2590
-2.6884 LANGUAGES -0.2948
-2.6884 LEE -0.2590
-2.6884 LIKE -0.2590
-2.6884 LISTENING -0.2590
-2.3874 LONG -0.2966
-2.6884 LOOK -0.3001
-2.6884 MADE -0.2902
-2.3874 MEMORY -0.2521
-2.0864 MUCH -0.2957
-2.6884 MUSIC -0.2590
-2.6884 OLD -0.2984
-2.3874 OPERATING -0.2992
-2.6884 OUT -0.2590
-2.6884 PACKAGE -0.2948
-2.0864 PI -0.2590
-2.6884 PLAY -0.3001
-2.3874 PROCESSOR -0.2521
-2.3874 QUIET -0.2590
-2.6884 RAIN -0.2590
-2.6884 RASPBERRY -0.2975
-2.6884 REBOOT -0.2590
-2.3874 RUNNING -0.2590
-2.6884 SHUTDOWN -0.2590
-2.6884 SPACE -0.2590
-2.6884 SPEECH -0.3001
-2.3874 SUDO -0.2992
-2.6884 SUN -0.3001
-2.3874 SYSTEM -0.2561
-2.6884 TEXT -0.2992
-1.9103 THE -0.2948
-2.3874 TIME -0.2481
-2.3874 TO -0.2992
-2.3874 TODAY -0.2590
-2.6884 UP -0.2590
-2.6884 USE -0.2590
-2.3874 WEATHER -0.2992
-1.6092 WHAT -0.2838
-2.6884 WHATS -0.2957
-2.6884 WHICH -0.2992
-2.6884 WHO -0.3001
-1.6092 YOU -0.2400
-2.3874 YOUR -0.2975

\2-grams:
-1.9542 <s> ABOUT 0.0000
-1.9542 <s> ANNYONG 0.0000
-1.9542 <s> ANNYONGHASEYO 0.0000
-1.9542 <s> ARE 0.0000
-1.9542 <s> BE 0.0000
-1.6532 <s> BYE 0.0000
-1.9542 <s> DO -0.0580
-1.9542 <s> FACEBOOK 0.0000
-1.9542 <s> GOODBYE 0.0000
-1.6532 <s> HELLO 0.0000
-1.6532 <s> HI 0.0000
-1.1091 <s> HOW 0.0000
-1.6532 <s> IS -0.0726
-1.9542 <s> KIM 0.0000
-1.9542 <s> LEE 0.0000
-1.9542 <s> PLAY 0.0000
-1.9542 <s> QUIET 0.0000
-1.9542 <s> RASPBERRY 0.0000
-1.6532 <s> SUDO 0.0000
-0.8751 <s> WHAT 0.0000
-1.9542 <s> WHATS 0.0000
-1.9542 <s> WHICH 0.0000
-1.9542 <s> WHO 0.0000
-0.3010 ABOUT FACE 0.0000
-0.3010 ANNYONG </s> -0.3010
-0.3010 ANNYONGHASEYO </s> -0.3010
-0.3010 ARE YOU -0.2218
-0.3010 BE QUIET 0.0000
-0.6021 BEEN RUNNING 0.0000
-0.6021 BEEN UP 0.0000
-0.3010 BUSAN </s> -0.3010
-0.6021 BYE </s> -0.3010
-0.6021 BYE PI 0.0000
-0.6021 DATE </s> -0.3010
-0.6021 DATE TODAY 0.0000
-0.3010 DAY IS -0.2139
-0.6021 DISK DO -0.0580
-0.6021 DISK SPACE 0.0000
-1.1461 DO EMAIL 0.0000
-0.3680 DO YOU -0.1761
-0.3010 EMAIL </s> -0.3010
-0.3010 FACE </s> -0.3010
-0.3010 FACEBOOK </s> -0.3010
-0.6021 FREE DISK -0.1761
-0.6021 FREE MEMORY -0.1761
-0.3010 GOING TO -0.1761
-0.3010 GOODBYE </s> -0.3010
-0.5229 HAVE </s> -0.3010
-0.6990 HAVE YOU -0.2632
-0.6021 HELLO </s> -0.3010
-0.6021 HELLO PI 0.0000
-0.6021 HI </s> -0.3010
-0.6021 HI PI 0.0000
-0.8451 HOW LONG 0.0000
-0.5441 HOW MUCH 0.0000
-1.1461 HOW OLD 0.0000
-0.3010 IN BUSAN 0.0000
-0.7404 IS IT 0.0000
-0.6435 IS THE 0.0000
-1.0414 IS YOUR 0.0000
-0.6021 IT </s> -0.3010
-0.9031 IT GOING 0.0000
-0.9031 IT TODAY 0.0000
-0.3010 KIM </s> -0.3010
-0.3010 KNOW </s> -0.3010
-0.3010 LANGUAGES DO -0.0580
-0.3010 LEE </s> -0.3010
-0.3010 LIKE </s> -0.3010
-0.3010 LISTENING </s> -0.3010
-0.3010 LONG HAVE -0.2041
-0.3010 LOOK LIKE 0.0000
-0.3010 MADE YOU -0.2632
-0.6021 MEMORY </s> -0.3010
-0.6021 MEMORY DO -0.0580
-0.9031 MUCH DISK -0.1761
-0.6021 MUCH FREE 0.0000
-0.9031 MUCH MEMORY -0.1761
-0.3010 MUSIC </s> -0.3010
-0.3010 OLD ARE 0.0000
-0.3010 OPERATING SYSTEM 0.0000
-0.3010 OUT </s> -0.3010
-0.3010 PACKAGE DO -0.0580
-0.3010 PI </s> -0.3010
-0.3010 PLAY MUSIC 0.0000
-0.6021 PROCESSOR </s> -0.3010
-0.6021 PROCESSOR DO -0.0580
-0.3010 QUIET </s> -0.3010
-0.3010 RAIN </s> -0.3010
-0.3010 RASPBERRY PI 0.0000
-0.3010 REBOOT </s> -0.3010
-0.3010 RUNNING </s> -0.3010
-0.3010 SHUTDOWN </s> -0.3010
-0.3010 SPACE </s> -0.3010
-0.3010 SPEECH PACKAGE 0.0000
-0.6021 SUDO REBOOT 0.0000
-0.6021 SUDO SHUTDOWN 0.0000
-0.3010 SUN OUT 0.0000
-0.6021 SYSTEM </s> -0.3010
-0.6021 SYSTEM ARE 0.0000
-0.3010 TEXT TO -0.1761
-0.7782 THE DATE 0.0000
-1.0792 THE SUN 0.0000
-1.0792 THE TIME -0.1761
-0.7782 THE WEATHER 0.0000
-0.6021 TIME </s> -0.3010
-0.6021 TIME IS -0.2139
-0.6021 TO RAIN 0.0000
-0.6021 TO SPEECH 0.0000
-0.3010 TODAY </s> -0.3010
-0.3010 UP </s> -0.3010
-0.3010 USE </s> -0.3010
-0.6021 WEATHER IN 0.0000
-0.6021 WEATHER LOOK 0.0000
-1.0792 WHAT DAY 0.0000
-0.6021 WHAT IS -0.1347
-1.3802 WHAT LANGUAGES 0.0000
-1.3802 WHAT OPERATING 0.0000
-1.3802 WHAT TEXT 0.0000
-1.3802 WHAT TIME -0.1761
-0.3010 WHATS THE -0.2218
-0.3010 WHICH PROCESSOR -0.1761
-0.3010 WHO MADE 0.0000
-1.0792 YOU </s> -0.3010
-1.0792 YOU BEEN 0.0000
-1.3802 YOU DO -0.2688
-0.9031 YOU HAVE -0.1461
-1.3802 YOU KNOW 0.0000
-1.3802 YOU LISTENING 0.0000
-1.3802 YOU RUNNING 0.0000
-1.3802 YOU USE 0.0000
-0.6021 YOUR OPERATING 0.0000
-0.6021 YOUR PROCESSOR -0.1761

\3-grams:
-0.3010 <s> ABOUT FACE
-0.3010 <s> ANNYONG </s>
-0.3010 <s> ANNYONGHASEYO </s>
-0.3010 <s> ARE YOU
-0.3010 <s> BE QUIET
-0.6021 <s> BYE </s>
-0.6021 <s> BYE PI
-0.3010 <s> DO YOU
-0.3010 <s> FACEBOOK </s>
-0.3010 <s> GOODBYE </s>
-0.6021 <s> HELLO </s>
-0.6021 <s> HELLO PI
-0.6021 <s> HI </s>
-0.6021 <s> HI PI
-0.8451 <s> HOW LONG
-0.5441 <s> HOW MUCH
-1.1461 <s> HOW OLD
-0.6021 <s> IS IT
-0.6021 <s> IS THE
-0.3010 <s> KIM </s>
-0.3010 <s> LEE </s>
-0.3010 <s> PLAY MUSIC
-0.3010 <s> QUIET </s>
-0.3010 <s> RASPBERRY PI
-0.6021 <s> SUDO REBOOT
-0.6021 <s> SUDO SHUTDOWN
-1.0792 <s> WHAT DAY
-0.6021 <s> WHAT IS
-1.3802 <s> WHAT LANGUAGES
-1.3802 <s> WHAT OPERATING
-1.3802 <s> WHAT TEXT
-1.3802 <s> WHAT TIME
-0.3010 <s> WHATS THE
-0.3010 <s> WHICH PROCESSOR
-0.3010 <s> WHO MADE
-0.3010 ABOUT FACE </s>
-0.7782 ARE YOU </s>
-0.7782 ARE YOU LISTENING
-0.7782 ARE YOU RUNNING
-0.3010 BE QUIET </s>
-0.3010 BEEN RUNNING </s>
-0.3010 BEEN UP </s>
-0.3010 BYE PI </s>
-0.3010 DATE TODAY </s>
-0.3010 DAY IS IT
-0.3010 DISK DO YOU
-0.3010 DISK SPACE </s>
-0.3010 DO EMAIL </s>
-1.0792 DO YOU DO
-0.6021 DO YOU HAVE
-1.0792 DO YOU KNOW
-1.0792 DO YOU USE
-0.3010 FREE DISK SPACE
-0.3010 FREE MEMORY </s>
-0.3010 GOING TO RAIN
-0.3010 HAVE YOU BEEN
-0.3010 HELLO PI </s>
-0.3010 HI PI </s>
-0.3010 HOW LONG HAVE
-0.9031 HOW MUCH DISK
-0.6021 HOW MUCH FREE
-0.9031 HOW MUCH MEMORY
-0.3010 HOW OLD ARE
-0.3010 IN BUSAN </s>
-0.6021 IS IT </s>
-0.9031 IS IT GOING
-0.9031 IS IT TODAY
-0.6990 IS THE DATE
-1.0000 IS THE SUN
-1.0000 IS THE TIME
-1.0000 IS THE WEATHER
-0.6021 IS YOUR OPERATING
-0.6021 IS YOUR PROCESSOR
-0.3010 IT GOING TO
-0.3010 IT TODAY </s>
-0.3010 LANGUAGES DO YOU
-0.3010 LONG HAVE YOU
-0.3010 LOOK LIKE </s>
-0.3010 MADE YOU </s>
-0.3010 MEMORY DO YOU
-0.3010 MUCH DISK DO
-0.6021 MUCH FREE DISK
-0.6021 MUCH FREE MEMORY
-0.3010 MUCH MEMORY DO
-0.3010 OLD ARE YOU
-0.6021 OPERATING SYSTEM </s>
-0.6021 OPERATING SYSTEM ARE
-0.3010 PACKAGE DO YOU
-0.3010 PLAY MUSIC </s>
-0.3010 PROCESSOR DO YOU
-0.3010 RASPBERRY PI </s>
-0.3010 SPEECH PACKAGE DO
-0.3010 SUDO REBOOT </s>
-0.3010 SUDO SHUTDOWN </s>
-0.3010 SUN OUT </s>
-0.3010 SYSTEM ARE YOU
-0.3010 TEXT TO SPEECH
-0.6021 THE DATE </s>
-0.6021 THE DATE TODAY
-0.3010 THE SUN OUT
-0.3010 THE TIME </s>
-0.6021 THE WEATHER IN
-0.6021 THE WEATHER LOOK
-0.3010 TIME IS IT
-0.3010 TO RAIN </s>
-0.3010 TO SPEECH PACKAGE
-0.3010 WEATHER IN BUSAN
-0.3010 WEATHER LOOK LIKE
-0.3010 WHAT DAY IS
-0.4771 WHAT IS THE
-0.7782 WHAT IS YOUR
-0.3010 WHAT LANGUAGES DO
-0.3010 WHAT OPERATING SYSTEM
-0.3010 WHAT TEXT TO
-0.3010 WHAT TIME IS
-0.3010 WHATS THE WEATHER
-0.3010 WHICH PROCESSOR DO
-0.3010 WHO MADE YOU
-0.6021 YOU BEEN RUNNING
-0.6021 YOU BEEN UP
-0.3010 YOU DO EMAIL
-0.3010 YOU HAVE </s>
-0.3010 YOU KNOW </s>
-0.3010 YOU LISTENING </s>
-0.3010 YOU RUNNING </s>
-0.3010 YOU USE </s>
-0.3010 YOUR OPERATING SYSTEM
-0.3010 YOUR PROCESSOR </s>

\end\
